-0.22274294
0.61575692
0.17566918
-0.35120250
-0.99237409
-0.33065968
-0.62379792
0.29745618
-0.75644751
-0.78224394
0.49485575
0.95349281
-0.77576034
-0.28191814
0.40361341
-0.91973698
0.36869011
-0.34866945
-0.35083369
0.49085621
0.58466634
-0.48600827
-0.24784762
-0.99655169
0.88177577
0.40133173
-0.02781079
-0.77926787
0.76713349
-0.59624010
-0.44259597
-0.19295704
0.67236612
-0.12369366
-0.42748594
-0.03852139
0.95945395
-0.02932585
-0.42839103
0.70248812
0.81464464
-0.64815324
-0.14081176
-0.82250992
-0.94109600
-0.68889101
-0.33290853
0.58981438
0.60377401
0.88287031
-0.77030714
-0.92229597
0.23061765
0.00741405
0.80045512
-0.56491432
-0.96144073
-0.98277230
-0.77697516
-0.57433063
0.73007297
-0.32199560
-0.93587693
-0.91562296
0.86702675
-0.21645798
0.82431929
-0.33029425
-0.36833841
-0.13020857
-0.59700535
0.55815705
-0.44225513
-0.45424107
-0.01845199
0.45680268
-0.06350037
-0.46416675
-0.96968614
0.82871157
0.97720329
0.82934810
-0.13178902
-0.62028812
0.33329764
0.90712625
0.82382741
-0.60744660
0.21418333
0.59027261
0.19231870
-0.82980973
-0.09095902
0.25031672
0.21242734
-0.02347041
-0.81603782
-0.82677728
0.59026928
-0.36332540
-0.73103654
0.44106902
0.20779388
-0.69879883
0.00373436
0.23204308
0.95556204
0.73163779
-0.02892930
0.65568272
-0.52496408
0.27881497
0.23914695
-0.92303873
-0.61373513
0.94067941
-0.38423821
-0.54407410
-0.35102945
-0.21460659
-0.54664098
-0.69424064
0.54647560
-0.96502371
-0.03029826
-0.36014671
0.35415400
-0.44809357
0.30039668
0.74268399
0.54439364
-0.86168375
-0.84070685
-0.83867296
-0.42992544
-0.77620183
-0.32472015
-0.89608835
0.64060270
-0.91260575
-0.41701298
-0.95004239
0.09255677
-0.56553381
0.22370792
-0.49350126
0.82607711
0.90742384
0.52231461
-0.77760107
-0.73530111
0.46840988
0.31736113
-0.40601883
0.06486498
0.00445777
-0.72845534
-0.49614671
-0.75725759
-0.49368471
-0.51445102
0.23469010
0.85805343
0.47200140
0.02661737
0.90216004
-0.13363546
-0.79888064
-0.38642876
-0.89194810
-0.39482158
-0.75583861
0.58236076
0.97896943
-0.11008246
-0.29944963
0.51439353
0.86867121
-0.61774825
0.10463743
-0.76576710
-0.21568453
-0.66024637
-0.87608085
-0.67644178
0.89342151
-0.24211082
0.93037989
-0.93012253
-0.93309383
0.80509511
-0.11706090
0.83821574
-0.96873529
0.46044223
0.94548264
0.82722227
0.17840117
0.91012651
0.54427866
0.19401917
0.16364681
-0.57613662
0.28399938
-0.74514002
0.40435357
0.53123674
-0.90389119
-0.58108799
-0.57596902
0.13397759
-0.59841114
0.99270934
0.54500047
-0.58048910
-0.37226430
-0.80952183
0.04709647
0.59745380
0.05830379
0.80871515
0.99532277
0.45702676
-0.24576394
0.39178557
0.19870557
0.44986022
0.49381529
0.96175794
0.65548776
0.92843478
0.11018853
0.36212233
-0.99924565
0.70726149
-0.82378592
-0.97540577
0.05142048
-0.28329727
-0.89664718
-0.41256689
-0.60312312
0.79457977
0.95199276
0.14729333
-0.49034073
0.95351502
0.14992782
0.22216045
0.21642408
-0.73115666
-0.78556502
0.03471594
-0.74864269
-0.93883178
0.55328731
-0.55094015
0.94107205
-0.14586798
0.43421392
0.60787029
0.94935168
0.51426222
-0.43421505
0.09184791
